digraph Tree {
node [shape=box] ;
0 [label="X[3] <= 1.0\ngini = 0.5\nsamples = 21326\nvalue = [10629, 10697]"] ;
1 [label="gini = 0.0\nsamples = 10629\nvalue = [10629, 0]"] ;
0 -> 1 [labeldistance=2.5, labelangle=45, headlabel="True"] ;
2 [label="gini = 0.0\nsamples = 10697\nvalue = [0, 10697]"] ;
0 -> 2 [labeldistance=2.5, labelangle=-45, headlabel="False"] ;
}